digraph Tree {
node [shape=box, style="filled", color="black"] ;
0 [label="Sex <= 0.5\ngini = 0.473\nsamples = 891\nvalue = [549, 342]", fillcolor="#e5813960"] ;
1 [label="Class <= 2.5\ngini = 0.3828\nsamples = 314\nvalue = [81, 233]", fillcolor="#399de5a6"] ;
0 -> 1 [labeldistance=2.5, labelangle=45, headlabel="True"] ;
2 [label="Class <= 1.5\ngini = 0.1003\nsamples = 170\nvalue = [9, 161]", fillcolor="#399de5f1"] ;
1 -> 2 ;
3 [label="SibSp <= 0.5\ngini = 0.0618\nsamples = 94\nvalue = [3, 91]", fillcolor="#399de5f7"] ;
2 -> 3 ;
4 [label="gini = 0.04\nsamples = 49\nvalue = [1, 48]", fillcolor="#399de5fa"] ;
3 -> 4 ;
5 [label="SibSp <= 1.5\ngini = 0.0849\nsamples = 45\nvalue = [2, 43]", fillcolor="#399de5f3"] ;
3 -> 5 ;
6 [label="gini = 0.095\nsamples = 40\nvalue = [2, 38]", fillcolor="#399de5f2"] ;
5 -> 6 ;
7 [label="gini = 0.0\nsamples = 5\nvalue = [0, 5]", fillcolor="#399de5ff"] ;
5 -> 7 ;
8 [label="SibSp <= 1.5\ngini = 0.1454\nsamples = 76\nvalue = [6, 70]", fillcolor="#399de5e9"] ;
2 -> 8 ;
9 [label="SibSp <= 0.5\ngini = 0.1528\nsamples = 72\nvalue = [6, 66]", fillcolor="#399de5e8"] ;
8 -> 9 ;
10 [label="gini = 0.1271\nsamples = 44\nvalue = [3, 41]", fillcolor="#399de5ec"] ;
9 -> 10 ;
11 [label="gini = 0.1913\nsamples = 28\nvalue = [3, 25]", fillcolor="#399de5e0"] ;
9 -> 11 ;
12 [label="gini = 0.0\nsamples = 4\nvalue = [0, 4]", fillcolor="#399de5ff"] ;
8 -> 12 ;
13 [label="SibSp <= 2.5\ngini = 0.5\nsamples = 144\nvalue = [72, 72]", fillcolor="#e5813900"] ;
1 -> 13 ;
14 [label="SibSp <= 0.5\ngini = 0.4955\nsamples = 126\nvalue = [57, 69]", fillcolor="#399de52c"] ;
13 -> 14 ;
15 [label="gini = 0.4829\nsamples = 81\nvalue = [33, 48]", fillcolor="#399de550"] ;
14 -> 15 ;
16 [label="SibSp <= 1.5\ngini = 0.4978\nsamples = 45\nvalue = [24, 21]", fillcolor="#e5813920"] ;
14 -> 16 ;
17 [label="gini = 0.4945\nsamples = 38\nvalue = [21, 17]", fillcolor="#e5813931"] ;
16 -> 17 ;
18 [label="gini = 0.4898\nsamples = 7\nvalue = [3, 4]", fillcolor="#399de540"] ;
16 -> 18 ;
19 [label="SibSp <= 4.5\ngini = 0.2778\nsamples = 18\nvalue = [15, 3]", fillcolor="#e58139cc"] ;
13 -> 19 ;
20 [label="SibSp <= 3.5\ngini = 0.3367\nsamples = 14\nvalue = [11, 3]", fillcolor="#e58139b9"] ;
19 -> 20 ;
21 [label="gini = 0.2188\nsamples = 8\nvalue = [7, 1]", fillcolor="#e58139db"] ;
20 -> 21 ;
22 [label="gini = 0.4444\nsamples = 6\nvalue = [4, 2]", fillcolor="#e581397f"] ;
20 -> 22 ;
23 [label="gini = 0.0\nsamples = 4\nvalue = [4, 0]", fillcolor="#e58139ff"] ;
19 -> 23 ;
24 [label="Class <= 1.5\ngini = 0.3064\nsamples = 577\nvalue = [468, 109]", fillcolor="#e58139c4"] ;
0 -> 24 [labeldistance=2.5, labelangle=-45, headlabel="False"] ;
25 [label="SibSp <= 0.5\ngini = 0.4656\nsamples = 122\nvalue = [77, 45]", fillcolor="#e581396a"] ;
24 -> 25 ;
26 [label="gini = 0.4419\nsamples = 88\nvalue = [59, 29]", fillcolor="#e5813982"] ;
25 -> 26 ;
27 [label="SibSp <= 2.5\ngini = 0.4983\nsamples = 34\nvalue = [18, 16]", fillcolor="#e581391c"] ;
25 -> 27 ;
28 [label="SibSp <= 1.5\ngini = 0.4995\nsamples = 33\nvalue = [17, 16]", fillcolor="#e581390f"] ;
27 -> 28 ;
29 [label="gini = 0.4995\nsamples = 31\nvalue = [16, 15]", fillcolor="#e5813910"] ;
28 -> 29 ;
30 [label="gini = 0.5\nsamples = 2\nvalue = [1, 1]", fillcolor="#e5813900"] ;
28 -> 30 ;
31 [label="gini = 0.0\nsamples = 1\nvalue = [1, 0]", fillcolor="#e58139ff"] ;
27 -> 31 ;
32 [label="SibSp <= 0.5\ngini = 0.2417\nsamples = 455\nvalue = [391, 64]", fillcolor="#e58139d5"] ;
24 -> 32 ;
33 [label="Class <= 2.5\ngini = 0.222\nsamples = 346\nvalue = [302, 44]", fillcolor="#e58139da"] ;
32 -> 33 ;
34 [label="gini = 0.2088\nsamples = 76\nvalue = [67, 9]", fillcolor="#e58139dd"] ;
33 -> 34 ;
35 [label="gini = 0.2257\nsamples = 270\nvalue = [235, 35]", fillcolor="#e58139d9"] ;
33 -> 35 ;
36 [label="SibSp <= 2.5\ngini = 0.2996\nsamples = 109\nvalue = [89, 20]", fillcolor="#e58139c6"] ;
32 -> 36 ;
37 [label="SibSp <= 1.5\ngini = 0.3471\nsamples = 85\nvalue = [66, 19]", fillcolor="#e58139b6"] ;
36 -> 37 ;
38 [label="Class <= 2.5\ngini = 0.3607\nsamples = 72\nvalue = [55, 17]", fillcolor="#e58139b0"] ;
37 -> 38 ;
39 [label="gini = 0.3841\nsamples = 27\nvalue = [20, 7]", fillcolor="#e58139a6"] ;
38 -> 39 ;
40 [label="gini = 0.3457\nsamples = 45\nvalue = [35, 10]", fillcolor="#e58139b6"] ;
38 -> 40 ;
41 [label="Class <= 2.5\ngini = 0.2604\nsamples = 13\nvalue = [11, 2]", fillcolor="#e58139d1"] ;
37 -> 41 ;
42 [label="gini = 0.32\nsamples = 5\nvalue = [4, 1]", fillcolor="#e58139bf"] ;
41 -> 42 ;
43 [label="gini = 0.2188\nsamples = 8\nvalue = [7, 1]", fillcolor="#e58139db"] ;
41 -> 43 ;
44 [label="SibSp <= 4.5\ngini = 0.0799\nsamples = 24\nvalue = [23, 1]", fillcolor="#e58139f4"] ;
36 -> 44 ;
45 [label="SibSp <= 3.5\ngini = 0.1172\nsamples = 16\nvalue = [15, 1]", fillcolor="#e58139ee"] ;
44 -> 45 ;
46 [label="gini = 0.0\nsamples = 4\nvalue = [4, 0]", fillcolor="#e58139ff"] ;
45 -> 46 ;
47 [label="gini = 0.1528\nsamples = 12\nvalue = [11, 1]", fillcolor="#e58139e8"] ;
45 -> 47 ;
48 [label="gini = 0.0\nsamples = 8\nvalue = [8, 0]", fillcolor="#e58139ff"] ;
44 -> 48 ;
}